layers:[2, 10, 10, 10, 1]
w:[[[0.0, -2.973682696905497, 2.322826286961798, 0.7779819565423982, 2.6122450758643136, 0.5850328676970469, -2.5246817309389096, -2.410137009697258, -1.9464156995371742, -2.3838051648665113, -1.6138709990198457], [0.0, -0.0008006815501631093, 0.3182414931474828, -1.9901895089276942, 0.08186417067197656, -2.650975896395227, -1.0547700299394818, 0.27766682592437647, -0.3381089679081276, -0.03835932335261898, -0.6721738316601291], [0.0, -0.3356191508919594, 0.20033916043988584, -0.6216970716433193, 0.2023164596103193, -0.5326825000196876, -0.3968670396471032, -0.3250970798447961, -0.15579255857341076, -0.4126278371262599, -0.1585387288006293]], [[0.0, 0.6584383111122634, -0.635379861041328, -0.19817362446644443, 1.454296943736439, -0.31914981175463664, -0.4018432164759887, -1.079983834988617, -1.3886385739137388, 0.004981539991442725, -0.25896210518804796], [0.0, -1.5607936971065313, 1.4407567460927562, -0.4982132526164684, -0.932170239199899, 1.4354186975263035, 1.0774648558583662, 1.151259349484134, 1.1113244733860017, 1.1764676923782817, -1.213833756693297], [0.0, 0.15983465531763252, -1.5107300690860328, -0.49550668876080045, 0.8116760098295603, -0.5748289549971567, -1.3058585198497041, -0.9903205062096055, -1.0358007778494467, -0.96342789273342, 0.9196229526345066], [0.0, 0.35884384629113575, 0.9222556288641804, 1.122250288820369, -0.08666334554196847, 0.0909701804137261, 0.7408346431163643, -0.8222549370027504, -0.21705928762239896, -0.8108839714192191, 0.0696781870900817], [0.0, 1.8099924850789295, 0.3787380324876357, 0.19576283584448118, 1.3202535439996859, -0.7002860366218125, 0.0770315465861513, -0.9271266659001813, -0.8282593162562326, -1.1990697675533712, -0.08622798143809403], [0.0, 0.1584473569789002, -0.03414297347380295, 2.2957577550722386, 0.8683818515274191, 0.5138932079494439, -0.0835017987863739, -0.04648177979747201, -0.6832272098196418, -0.5338939222118275, 0.8288462346596795], [0.0, -0.9853509953559809, 0.2846411489805211, 0.4466313854314901, -0.8626490334789371, -0.6990806015326861, -0.48191031164035536, 0.3058472239971107, 0.9951511005065751, 1.1323023803436736, -1.2639221229917856], [0.0, -0.8183960800049032, 0.8186781768085167, -0.9391811894164429, 0.2951294787200674, -0.5736420375670883, 0.25024296139317276, 0.5547369575117601, 0.9268545400963009, 1.1801597707488545, -1.4430043160906114], [0.0, 0.2464199850424712, 0.40746309840737127, 0.16113509422354524, -0.602294458101274, 0.5479275754697523, 1.1761622947986876, 0.3064880972460606, -0.043285590363630055, 0.6189121685996755, -0.6781803302002435], [0.0, -0.006809533649617956, 1.4868552103504153, -0.6053190774050691, -0.9594670256773831, 1.8649106017618966, 1.2731292325005974, 0.40764805677163474, -0.41544276987417283, 0.4422034148448708, -1.1326502511379481], [0.0, -1.0372928712492093, 1.5032106178422227, 0.6314158678438987, 0.6774563267083115, 1.3408896435674444, 0.8467566753866232, 1.0344089578152609, 0.38764999239082754, -0.0032501231582148207, -0.3946745506343715]], [[0.0, -0.4912634862609935, -0.5226898376762381, -0.44269006968629115, -0.13884329692728575, -0.06469005031933057, 0.29581059533964127, -3.1765219688441095, -0.11692637486172168, 0.7268985924136472, -0.32874630100710023], [0.0, -0.07327706118770874, 0.8048066824614719, 0.8144330919781647, -0.8094006774715699, 0.6676169976811884, -0.2526512270614233, -1.6737001613053573, 0.7775670187384313, -0.6011371612749058, -0.22839171792265275], [0.0, -0.1522518205856062, -0.8668906940421306, -0.1435245590658983, 1.333397570039656, 0.1272014746033937, -0.04284800212625605, -2.1488024278820457, 0.11368311981959028, 0.5704607267997773, 0.9265177940395675], [0.0, -0.415933327235649, 0.9476827195540712, -1.4255662959621498, 0.5821177335598008, 0.8239575817821231, 0.47689040619500467, -3.1577434562619353, 0.35771984697676584, 1.5847660182895353, -0.19350073414643845], [0.0, -0.4026849428412638, -0.8596135230485035, -0.09759193484911557, 0.5978612480307688, 0.059553396754274554, 0.002612856893470886, -2.3402176029689827, -0.28719740878937383, 0.5868878850130558, -0.4607753778297851], [0.0, -0.20924605375808947, 0.5172239944930275, -2.0580713240186728, -0.5469593883622696, -0.5658346634039452, 1.3189921204365207, -5.937137684872306, 0.006549944287772263, 1.8271484499138548, -2.014529035131803], [0.0, -1.0735078818644865, 0.749897366293625, -1.8705062079933144, -1.3847347717845953, 0.926873097434069, 1.4148853568513904, -7.287257034630195, 1.9773640366287302, 1.8427540527006205, -2.396860817408484], [0.0, -0.05934479496029992, 0.7355382226852788, 0.9983194558284957, -1.0394233694728359, 0.15378778131477652, -1.0002507586846072, 2.4020297528390917, -0.7943703975939221, -1.109208068425555, 0.6830514172922052], [0.0, 0.47853939010220264, 0.8063445375820528, 0.5003628445573637, -0.22896824680315778, -0.27055901194373877, -0.572921911260358, 2.063500199880259, -0.0929443932715326, 0.7506884374036329, 0.3310975741793648], [0.0, -0.5160563889017773, -0.7982308879056444, 0.7021601238431, 0.8812837184962511, 1.035691874391703, -0.20675480190187126, 3.3174877252991406, -0.9924545065116612, -0.9546051208094345, 0.005909384952401214], [0.0, 0.19331846214862436, 0.35227810630371775, 0.35657731571404766, -1.17076614926465, -0.3337953509666131, -0.23616331423745082, -0.5132870071158332, -0.9441501881051227, -0.42311519350041793, -0.5949935638115009]], [[0.0, -0.03439309133031236], [0.0, 0.30748366797676696], [0.0, -0.31905429288448767], [0.0, 1.1698312019467496], [0.0, -0.003838272239027852], [0.0, -0.2056469962740888], [0.0, -0.5976809794156972], [0.0, 3.440253641279809], [0.0, -0.40492524968277666], [0.0, -1.2200897105610862], [0.0, 0.6812388204334144]]]